item0 -0.08741924911737442 0.1876845359802246 0.08895427733659744 -0.20996539294719696 -0.06822539865970612 -0.024083061143755913 0.10478627681732178 -0.08274573087692261 0.21239544451236725 -0.017066560685634613 0.03092213347554207 -0.08559492230415344 0.0348198302090168 -0.3549732565879822 0.35115012526512146 -0.02464352734386921 0.0007945845718495548 -0.106234610080719 -0.12904022634029388 0.18753120303153992 -0.08946011960506439 -0.1975599080324173 0.0958741083741188 0.0636604055762291 -0.0029492478352040052 -0.0512918122112751 -0.08952584117650986 0.1790776550769806 0.2789926528930664 0.07314332574605942 0.16834932565689087 0.12308558821678162 0.018493251875042915 0.011629564687609673 0.03734765201807022 -0.10443782806396484 0.24414978921413422 -0.018133260309696198 -0.1808396279811859 0.2596208155155182 0.35026687383651733 0.12516239285469055 0.2783123254776001 -0.042721737176179886 0.09642810374498367 0.2783178389072418 -0.06029663607478142 0.15012983977794647 -0.028572235256433487 0.13476741313934326 -0.1276271641254425 -0.034884873777627945 -0.056749872863292694 -0.2535305917263031 -0.20328186452388763 0.015650346875190735 0.034195221960544586 0.051938775926828384 0.16209103167057037 -0.09491505473852158 0.20209543406963348 -0.08987094461917877 0.055380430072546005 0.06565040349960327 -0.13695824146270752 0.19453638792037964 0.1637597531080246 0.07919192314147949 -0.0033613855484873056 0.07837243378162384 -0.12750078737735748 0.25935685634613037 -0.0467153936624527 0.19255174696445465 -0.24337424337863922 0.09169410169124603 0.1418803483247757 -0.12478259205818176 -0.06462839990854263 0.03836674988269806 0.10446101427078247 0.015602905303239822 0.030633995309472084 0.17911981046199799 -0.31366291642189026 -0.05365367978811264 0.3450142443180084 0.11578130722045898 -0.13248008489608765 -0.22040094435214996 -0.18256722390651703 0.08416035771369934 0.1538361757993698 0.06204133480787277 -0.0504738949239254 -0.0531640388071537 0.13330349326133728 0.013105664402246475 -0.10396573692560196 -0.09372352063655853 -0.0744369626045227 -0.2022545486688614 -0.26995712518692017 -0.014506346546113491 0.16633355617523193 -0.3346843421459198 0.2385048270225525 -0.05649975687265396 0.07027635723352432 0.13998393714427948 -0.14999794960021973 -0.14757846295833588 -0.043527357280254364 0.09115362912416458 0.034603629261255264 -0.04394226521253586 -0.08474243432283401 0.005128819495439529 -0.21430553495883942 -0.09610596299171448 0.04437137395143509 -0.21674330532550812 -0.04409152269363403 0.21074539422988892 -0.23614785075187683 -0.10640910267829895 0.0024677389301359653 -0.028654536232352257 0.09929461032152176 0.25163528323173523 0.17829936742782593 -0.005293560214340687 0.0011410281294956803 0.23890869319438934 0.09835508465766907 0.09856244921684265 0.26488053798675537 0.527120053768158 -0.12217148393392563 0.2163752317428589 0.10728975385427475 0.04430561885237694 -0.1131427213549614 0.008303976617753506 -0.10773339867591858 -0.004541106056421995 -0.0038646745961159468 -0.11221828311681747 0.10378095507621765 -0.06106477603316307 -0.02615608461201191 0.11655647307634354 -0.010003853589296341 -0.18589890003204346 -0.046553488820791245 -0.03335357457399368 0.039689820259809494 0.1293357014656067 -0.11559895426034927 -0.06246592104434967 -0.02071605809032917 0.06589534878730774 -0.0017019096994772553 0.1853402853012085 -0.27125048637390137 -0.06908710300922394 -0.4024975001811981 -0.2516306936740875 0.10744914412498474 0.36668655276298523 0.14105017483234406 -0.0881953090429306 0.11348842829465866 -0.05962369963526726 0.0308426171541214 -0.06910035014152527 0.13208700716495514 0.07459769397974014 0.08431706577539444 -0.060332607477903366 -0.05212157964706421 0.08771565556526184 -0.0013144287513568997 -0.26274535059928894 0.07450889050960541 0.10497119277715683 -0.028481459245085716 -0.07882136106491089 0.18701410293579102 0.09437950700521469 -0.0779310017824173 -0.11596177518367767 0.24907557666301727 -0.050772715359926224 -0.04742170125246048 0.21077249944210052 0.05664045363664627 -0.3668229877948761 0.10113652795553207 0.18686585128307343
item1 -0.021272219717502594 -0.031156864017248154 0.28985467553138733 -0.15192803740501404 -0.16347607970237732 0.17043036222457886 -0.0015903402818366885 -0.0073973312973976135 0.1948438584804535 -0.16844521462917328 0.0008799434290267527 -0.03715825825929642 0.1233910620212555 -0.20982351899147034 0.06131662800908089 -0.035969026386737823 -0.07834608107805252 -0.00667130621150136 -0.05070358142256737 0.15454380214214325 -0.21676592528820038 0.02469526417553425 0.06035054847598076 -0.14258800446987152 0.07590878754854202 0.20195800065994263 0.004360017832368612 0.23422883450984955 0.2505594789981842 0.017565924674272537 0.09941932559013367 0.13701443374156952 -0.04565345495939255 0.06014598533511162 -0.04812231287360191 0.1127629354596138 -0.016152339056134224 0.04561581462621689 -0.41459664702415466 0.010201232507824898 0.25346508622169495 -0.01662764512002468 -0.008410697802901268 0.06782442331314087 -0.11195369064807892 0.2704969048500061 0.04185669496655464 -0.04581070318818092 0.09589570760726929 -0.22255316376686096 -0.11675979197025299 -0.11205878108739853 -0.22119075059890747 -0.06854015588760376 -0.20666736364364624 -0.004066751804202795 -0.05282677337527275 0.01685536839067936 0.05859636887907982 -0.15221646428108215 0.1025831401348114 0.003994748927652836 -0.04539996385574341 -0.14768190681934357 -0.15480782091617584 0.2530131936073303 0.2152012437582016 0.06142031028866768 -0.1316995769739151 0.01181472185999155 0.06032243371009827 0.1507333368062973 -0.10548242926597595 0.134888157248497 -0.13437536358833313 -0.08881291002035141 -0.041461534798145294 -0.021781105548143387 -0.06651567667722702 0.03107156977057457 0.26594042778015137 -0.0781228095293045 0.2341896891593933 0.02386363595724106 -0.2285643219947815 -0.013257477432489395 0.2682042121887207 0.22111967206001282 -0.2280389666557312 -0.22598624229431152 -0.19941571354866028 0.1391165852546692 0.1531929075717926 0.157535120844841 0.010239853523671627 -0.10128708183765411 0.23823846876621246 0.036238498985767365 0.06754864007234573 0.053503524512052536 -0.07742952555418015 -0.038401950150728226 -0.16859842836856842 0.10322622954845428 0.15401026606559753 -0.34523239731788635 0.18100737035274506 -0.04170256853103638 -0.03823397681117058 -0.21369251608848572 -0.28356584906578064 -0.05262391269207001 -0.07429799437522888 0.15920619666576385 -0.04830409213900566 0.12039317935705185 -0.23183825612068176 0.053051289170980453 -0.19517354667186737 0.24077565968036652 0.14473232626914978 -0.17814753949642181 -0.19291849434375763 0.3990231454372406 -0.08954333513975143 0.09206441789865494 0.13845252990722656 0.04793699458241463 -0.04405316337943077 0.16380400955677032 0.14065253734588623 -0.08495531231164932 0.0313158854842186 0.28934457898139954 0.15589003264904022 -0.053780458867549896 0.07555089890956879 0.25735247135162354 -0.004995496943593025 0.25391140580177307 0.1784968376159668 0.0514942966401577 0.047246742993593216 0.09639006853103638 -0.12946689128875732 0.13506999611854553 -0.1640014946460724 -0.0896107479929924 0.028023814782500267 0.010182810015976429 -0.1445702314376831 0.09150850772857666 -0.019024651497602463 -0.187119260430336 -0.010948208160698414 -0.04499370977282524 -0.14283618330955505 0.10559556633234024 -0.19188827276229858 -0.015074889175593853 0.047948598861694336 0.0458829365670681 0.05986466258764267 0.17267654836177826 -0.09561716765165329 -0.1253611445426941 -0.20707616209983826 -0.03553362563252449 0.15802350640296936 0.11588974297046661 0.21451425552368164 -0.04361499100923538 0.047385163605213165 -0.0427422933280468 0.10417240113019943 -0.2613806426525116 0.058511219918727875 -0.061115313321352005 0.03696522116661072 -0.07425753772258759 -0.05659175664186478 -0.009871089830994606 -0.11581822484731674 -0.21438856422901154 0.06665682047605515 0.15273766219615936 -0.2628609836101532 -0.06820918619632721 0.2604197859764099 -0.006815749686211348 -0.17619957029819489 -0.008438939228653908 0.25991085171699524 -0.13202440738677979 -0.028523407876491547 0.1261300891637802 0.12137292325496674 -0.29781195521354675 0.08480685204267502 -0.15563683211803436
item2 -0.10322854667901993 0.14022748172283173 0.024362940341234207 0.11463837325572968 0.36298641562461853 -0.012382962740957737 -0.04947618022561073 -0.08180437982082367 0.35304802656173706 -0.09466907382011414 -0.1196930930018425 -0.17283493280410767 -0.003744324669241905 -0.4754377603530884 0.2830711603164673 0.07173860818147659 0.015560295432806015 -0.20002096891403198 -0.11893190443515778 0.1015181839466095 -0.3866795301437378 0.49358758330345154 0.24065475165843964 0.055523086339235306 -0.13995376229286194 0.031719837337732315 0.1394299417734146 0.37095358967781067 0.3694647550582886 -0.14003951847553253 -0.16106027364730835 0.19585688412189484 0.06586416810750961 0.1034710705280304 0.353523313999176 0.11690942198038101 0.06934775412082672 -0.10144954919815063 -0.26599326729774475 -0.2124757319688797 0.3697478175163269 0.08415043354034424 -0.11218387633562088 0.03593050688505173 -0.20811079442501068 0.3007568120956421 0.10701444745063782 0.038242705166339874 0.2141043245792389 0.09233693033456802 0.11015878617763519 0.19013644754886627 0.2866668403148651 0.09882646799087524 -0.3372729420661926 -0.04245203360915184 -0.23670005798339844 0.3143315613269806 0.3345502018928528 -0.28151649236679077 0.21340465545654297 0.11530192941427231 0.20314377546310425 0.14758622646331787 0.052261076867580414 -0.00938031729310751 0.5675134062767029 0.2606801688671112 -0.0802254006266594 -0.09137345850467682 -0.09627532958984375 -0.09396626055240631 -0.10150960832834244 -0.04597989097237587 -0.11047660559415817 0.1191830113530159 -0.17540206015110016 -0.5148531198501587 -0.20590722560882568 0.10669609904289246 0.29983052611351013 -0.10891064256429672 0.0850846916437149 0.40971559286117554 0.04740878939628601 -0.192641019821167 0.30811983346939087 0.33366280794143677 -0.19656357169151306 -0.1784081906080246 0.027517857030034065 0.18326428532600403 0.3383937180042267 -0.1745835542678833 0.16096767783164978 0.13753871619701385 0.31850555539131165 0.13067376613616943 0.12505723536014557 0.004441352561116219 0.19571681320667267 -0.029312973842024803 -0.178028404712677 0.2689457833766937 -0.03968948498368263 -0.02838439866900444 0.13038434088230133 0.1806119978427887 -0.14866405725479126 -0.18193820118904114 -0.12604625523090363 0.06420104205608368 -0.00605765962973237 0.10222944617271423 -0.051122043281793594 0.06514148414134979 -0.3548491895198822 0.2295341044664383 -0.137959286570549 0.00856090895831585 0.25701773166656494 -0.36569300293922424 -0.07764546573162079 -0.1641772985458374 -0.30773112177848816 0.1516142338514328 0.3536660671234131 -0.11563805490732193 -0.15857018530368805 0.3724946081638336 0.022093135863542557 0.19828318059444427 0.15792204439640045 0.20986436307430267 -0.07987530529499054 -0.24214458465576172 0.44204097986221313 -0.04942089691758156 -0.04826284572482109 0.3098563551902771 -0.018712282180786133 0.08566366136074066 0.15597397089004517 0.1323024332523346 -0.035013385117053986 -0.18661358952522278 -0.02433725818991661 -0.11675447970628738 -0.05060707777738571 0.058346204459667206 -0.012668130919337273 0.20739416778087616 0.06456886976957321 -0.1932307481765747 -0.011011297814548016 0.042779382318258286 -0.13643217086791992 -0.22843524813652039 -0.1374649852514267 -0.01043430995196104 0.20713263750076294 -0.15573538839817047 -0.022690949961543083 0.002162972930818796 -0.0695599913597107 -0.3891902267932892 -0.16179867088794708 -0.11839217692613602 0.10372214764356613 0.2765491306781769 0.19705620408058167 0.1993580013513565 0.04658997431397438 0.017391955479979515 0.01440446451306343 0.20032335817813873 0.013420040719211102 0.08128213882446289 -0.025220120325684547 -0.011385099962353706 -0.3250610828399658 0.022172870114445686 -0.21454913914203644 -0.10213982313871384 0.42679986357688904 0.3799218535423279 -0.1290309578180313 -0.3432127833366394 0.2447279840707779 -0.2970082461833954 -0.29214736819267273 -0.057042915374040604 0.21136675775051117 -0.08926539868116379 -0.28937360644340515 0.028769616037607193 0.22073474526405334 -0.1965831220149994 -0.14193011820316315 -0.019478922709822655
item3 4.187787271803245e-05 0.45222732424736023 0.2998615801334381 -0.19018428027629852 0.2974414825439453 -0.318771094083786 0.15242423117160797 0.012222002260386944 0.290766179561615 0.05242687463760376 0.11356763541698456 0.06361334770917892 -0.3066873848438263 -0.38008442521095276 -0.20377640426158905 0.5669492483139038 0.2462562769651413 0.12713713943958282 0.2568662762641907 0.21218232810497284 0.09884848445653915 0.28309452533721924 -0.10069173574447632 -0.5245272517204285 0.013915902003645897 -0.21264365315437317 0.134856715798378 -0.24911664426326752 0.004530321806669235 -0.46737468242645264 -0.21983429789543152 -0.1083613932132721 -0.4354027211666107 0.4982540011405945 -0.17550013959407806 0.2846980690956116 -0.2740514278411865 -0.3013684153556824 -0.40938445925712585 -0.3590531349182129 0.10778786987066269 -0.626668393611908 0.023097481578588486 -0.7767225503921509 -0.5362561941146851 0.37873268127441406 -0.4465412497520447 0.3395818769931793 0.27813857793807983 -0.17884090542793274 0.21937711536884308 0.660969614982605 0.4036182761192322 0.21339550614356995 -0.3974768817424774 0.10668384283781052 -0.15311013162136078 0.14523999392986298 -0.044318992644548416 -0.08742644637823105 0.3996342718601227 0.0026450830046087503 -0.2758381962776184 -0.194052055478096 0.4332544505596161 0.03965577483177185 0.3360080420970917 -0.11688520014286041 0.31756356358528137 0.20770010352134705 -0.13704277575016022 -0.011608149856328964 -0.25751233100891113 -0.025419224053621292 -0.3891521096229553 -0.17860224843025208 -0.3663027286529541 -0.44129323959350586 -0.1910679042339325 -0.08669211715459824 0.3876795768737793 -0.1334114819765091 0.1410185992717743 0.5118714570999146 0.21935005486011505 -0.040018729865550995 0.46590903401374817 0.8335839509963989 -0.3403908908367157 -0.20542798936367035 -0.038103003054857254 0.13576413691043854 -0.22985000908374786 0.2799490988254547 -0.33904242515563965 -0.01949753239750862 -0.04334573075175285 -0.05871857330203056 -0.2778696119785309 0.28117796778678894 -0.11364422738552094 -0.3596931993961334 -0.35968559980392456 0.21407896280288696 -0.17032651603221893 -0.48006170988082886 0.2546706199645996 -0.1799565702676773 -0.18336395919322968 -0.09159299731254578 -0.2175673246383667 0.15342125296592712 -0.39680132269859314 0.768172562122345 -0.19542613625526428 0.07247486710548401 -0.37226390838623047 0.10280577838420868 -0.2996109426021576 -0.043498385697603226 0.5629397630691528 -0.1640796810388565 -0.24573761224746704 0.27772217988967896 0.42524638772010803 0.00482536107301712 -0.004392328672111034 -0.25297829508781433 0.09383506327867508 0.43706968426704407 0.48184219002723694 -0.0069777993485331535 0.4427862763404846 0.2774291932582855 -0.16422605514526367 -0.5594836473464966 -0.22353246808052063 -0.03681381046772003 -0.16920699179172516 -0.21814458072185516 -0.19622352719306946 -0.3429711163043976 0.05056745186448097 -0.08201348781585693 -0.16698694229125977 0.20257137715816498 -0.24092558026313782 0.2208002358675003 -0.5049801468849182 -0.15558061003684998 0.01849166862666607 0.1758735328912735 -0.294041246175766 -0.3334457278251648 0.16475123167037964 0.11320887506008148 -0.1500379592180252 -0.14793680608272552 -0.10120811313390732 0.03214268758893013 0.04224700480699539 -0.04262154549360275 0.007347848732024431 -0.4459882974624634 0.1477731168270111 -0.1768684834241867 0.4048832058906555 0.4924008548259735 -0.06508724391460419 -0.0230270866304636 0.12478349357843399 -0.48374342918395996 -0.34272733330726624 -0.20589619874954224 -0.38542482256889343 0.29653221368789673 -0.336830735206604 0.3015754818916321 0.10371309518814087 0.2712060213088989 -0.5071841478347778 0.24263150990009308 0.09105250984430313 -0.30177041888237 -0.13134676218032837 0.4489312767982483 -0.5405976176261902 -0.5698148012161255 0.4400796592235565 -0.24544572830200195 -0.09876309335231781 -0.31710439920425415 -0.021412916481494904 -0.05561009421944618 -0.11208059638738632 -0.2952985167503357 -0.0006910244119353592 -0.5055657029151917 0.06515883654356003 0.32035374641418457
item4 0.6231228113174438 -0.2332722246646881 -0.49706366658210754 -0.0032487111166119576 0.8334286212921143 -0.028632191941142082 -0.8167307376861572 -0.26261016726493835 0.47959452867507935 -0.32527413964271545 -0.0811912789940834 0.22156211733818054 -0.35743165016174316 1.1004366874694824 0.9132048487663269 0.12333965301513672 -0.06877542287111282 0.29700329899787903 -0.1282903105020523 -0.9288780689239502 0.5330517292022705 0.05014931410551071 -0.3335783779621124 -0.4901573359966278 0.06630441546440125 -0.2181387096643448 0.6655817031860352 0.36514419317245483 0.3458302915096283 -0.34987276792526245 0.13456159830093384 0.5496290326118469 0.06330063939094543 -0.5694038271903992 0.06512665748596191 -0.18355248868465424 -0.37110766768455505 -0.39203542470932007 -0.46560755372047424 0.17880107462406158 -0.25702765583992004 -0.40426817536354065 0.4131564199924469 -0.4751322865486145 -0.5560269355773926 0.028069796040654182 0.20304584503173828 -0.1265207678079605 0.219546377658844 -0.2868787944316864 -0.4705928862094879 -0.258888840675354 0.45600512623786926 0.035245005041360855 -0.39721494913101196 0.38379812240600586 0.20983067154884338 -0.2102094441652298 0.7402000427246094 -0.30372875928878784 0.8559466600418091 0.12565170228481293 0.29648256301879883 -0.20459432899951935 -0.3672924339771271 0.2188875526189804 0.3459504246711731 -0.025545664131641388 0.06885024160146713 0.217413529753685 0.11420636624097824 -0.4681534469127655 -0.5216082334518433 0.1093885749578476 -0.07623148709535599 0.1315578818321228 0.5849577784538269 1.0640332698822021 -0.4901050925254822 0.0942506343126297 -0.5200601816177368 -0.6627260446548462 -0.24514584243297577 0.19661107659339905 -0.3346925973892212 0.9881652593612671 0.380935400724411 0.9657924175262451 0.3854852020740509 0.26584264636039734 0.5228554606437683 -0.22149905562400818 0.3538820743560791 0.26171714067459106 0.48630672693252563 0.07852600514888763 0.5133982300758362 -0.5245084166526794 -0.3060658276081085 -0.22609198093414307 -0.14090269804000854 -0.2917226254940033 0.09784658253192902 -0.7176932096481323 0.7028454542160034 0.7305843830108643 0.6098029017448425 0.3735649585723877 0.6625636219978333 0.18664753437042236 0.6982297301292419 -0.14620599150657654 0.26169440150260925 0.09326308965682983 0.10118842869997025 0.41842249035835266 1.2199978828430176 0.5695650577545166 0.4917331635951996 0.6343995332717896 0.7015522122383118 0.09083738923072815 -0.7102319002151489 0.05868161469697952 0.09068632125854492 0.8439884185791016 0.2848598062992096 -0.5008106827735901 0.21156741678714752 0.6589658260345459 -0.31524571776390076 0.6203019022941589 -0.3034270405769348 0.250182181596756 0.07255951315164566 -0.3958055078983307 0.0518987700343132 -0.014210358262062073 -0.23789742588996887 0.1753375381231308 -0.22627155482769012 -0.5185567140579224 -0.28790754079818726 0.25119951367378235 0.0029229687061160803 0.4655121862888336 -0.32741689682006836 -0.6569190621376038 -0.053434789180755615 -0.25853219628334045 0.07236368209123611 -0.6629245281219482 -0.02560383640229702 0.08676397055387497 0.414486289024353 0.2757248282432556 -0.34346771240234375 -0.09992259740829468 -0.36279433965682983 0.43853306770324707 0.33695125579833984 0.5780307650566101 -0.16616535186767578 -0.21143122017383575 -0.21516361832618713 -0.21854333579540253 0.09071075171232224 0.10921847820281982 -0.8686362504959106 0.5840729475021362 -0.021700620651245117 0.6662290692329407 0.3230656385421753 -0.03366813808679581 0.5567592978477478 1.071810007095337 -0.4231254458427429 0.4338358938694 -0.25763168931007385 0.27666398882865906 -0.9267757534980774 0.26097631454467773 -0.1972016543149948 -0.21029025316238403 0.4272874891757965 0.33772367238998413 0.05015541985630989 -0.03598948195576668 0.22970373928546906 0.23391304910182953 -0.4524701237678528 -0.09266000241041183 0.2921067774295807 -0.3986817002296448 -0.18665950000286102 0.6795775294303894 0.17209143936634064 0.026419907808303833 -0.1941840946674347 -0.4263242185115814
item5 0.5577523708343506 -0.018755150958895683 0.4045155346393585 0.21402546763420105 0.2995421290397644 -0.09903232008218765 0.8091522455215454 -0.0003368561447132379 0.30995744466781616 0.08401332795619965 -0.046212244778871536 0.32298919558525085 0.14258527755737305 -0.452739417552948 0.08285579085350037 0.5565877556800842 -0.1653243899345398 -0.21910691261291504 -0.3982086181640625 0.053683310747146606 -0.10333453863859177 -0.24934373795986176 0.2767191529273987 0.04393300041556358 0.2364983707666397 0.37260109186172485 0.30360063910484314 -0.12075965851545334 0.45398038625717163 -0.452944815158844 -0.1561255007982254 0.29176703095436096 0.16823190450668335 0.35676369071006775 -0.48638880252838135 -0.26872503757476807 -0.3741392195224762 0.4675058126449585 0.16102413833141327 0.4502492845058441 0.29447436332702637 0.35633397102355957 -0.24696999788284302 -0.5305997729301453 0.11096673458814621 0.18908458948135376 -0.059556204825639725 0.22990953922271729 -0.33513742685317993 -0.20029407739639282 -0.0015799881657585502 -0.14866739511489868 0.05506470799446106 -0.3107430338859558 -0.19192206859588623 -0.0699928030371666 0.25800052285194397 0.025597957894206047 -0.2657966613769531 0.16318681836128235 0.4549289345741272 0.2735573649406433 -0.023083409294486046 -0.1791587620973587 0.06524960696697235 -0.3128277063369751 -0.08135731518268585 -0.10504919290542603 0.17609800398349762 0.5190317034721375 -0.2156766951084137 -0.006997897755354643 -0.4245258569717407 0.016966484487056732 0.11493229120969772 0.020198028534650803 0.12002871930599213 0.24473729729652405 0.025665858760476112 0.033437784761190414 -0.14006216824054718 -0.2288583368062973 -0.1550249308347702 -0.036250654608011246 -0.45793700218200684 -0.02927626669406891 0.4495692849159241 -0.1021638885140419 -0.5237869024276733 0.0071503715589642525 -0.04832163825631142 0.04356799274682999 -0.4009764492511749 0.055951077491045 -0.459452360868454 0.12018082290887833 0.43452250957489014 -0.236150860786438 -0.0010123883839696646 -0.03437797352671623 0.01595953293144703 -0.04793491214513779 -0.03951011598110199 0.16887767612934113 -0.05886952579021454 0.0753965750336647 0.09162424504756927 0.08931908011436462 -0.2488221973180771 0.0961935892701149 -0.02591664344072342 -0.17688225209712982 -0.14850541949272156 0.6399803757667542 0.5249688029289246 -0.33845487236976624 -0.1624879390001297 -0.14503498375415802 0.054887063801288605 -0.01191180944442749 0.43758049607276917 0.14972226321697235 -0.37775537371635437 -0.5404119491577148 0.03134990483522415 -0.010994870215654373 -0.11380524933338165 -0.028994956985116005 -0.3839021623134613 0.4651701748371124 0.017809368669986725 -0.060421884059906006 0.5139408707618713 0.033857014030218124 -0.24853384494781494 0.1148550808429718 0.050318315625190735 0.11997853219509125 -0.140875443816185 0.028992777690291405 0.1287001371383667 -0.023710737004876137 -0.49612486362457275 -0.1948278844356537 -0.2626112699508667 0.20764589309692383 0.24643324315547943 -0.21064390242099762 -0.09363512694835663 0.4327346682548523 -0.14733779430389404 -0.012843417003750801 0.049811895936727524 0.052565962076187134 -0.040931642055511475 0.19588114321231842 -0.19994871318340302 -0.10378147661685944 -0.23378673195838928 -0.2505384385585785 -0.059336647391319275 -0.2189062088727951 0.015146778896450996 0.037801552563905716 -0.006301197223365307 0.19185040891170502 -0.3786747455596924 0.5745762586593628 0.059847328811883926 0.04049769416451454 -0.03824843093752861 0.15167741477489471 0.48875364661216736 0.3633454442024231 0.014908302575349808 0.18052555620670319 0.22036118805408478 -0.12938523292541504 0.12591537833213806 0.14055168628692627 0.1029914990067482 -0.14324121177196503 -0.07145669311285019 -0.35585853457450867 0.12843582034111023 0.06641580909490585 -0.2617647051811218 -0.2726442515850067 0.09640244394540787 -0.21296900510787964 -0.3163001239299774 0.22804862260818481 0.3123966157436371 0.422482967376709 -0.20155054330825806 -0.029108483344316483 0.5376745462417603 0.01357309427112341 -0.04608248174190521 -0.04805415868759155
item6 1.3227894306182861 0.14602532982826233 -0.28489553928375244 0.08995743095874786 0.3085346817970276 0.03678000718355179 0.28016674518585205 -0.18278473615646362 0.11099948734045029 0.04527794569730759 0.12776270508766174 -0.6035626530647278 1.2833806276321411 -0.20482173562049866 0.26872408390045166 0.014626882039010525 0.7207227945327759 0.2274322509765625 -0.2579822838306427 -0.5738602876663208 0.23970668017864227 -7.73472711443901e-05 -0.14233656227588654 0.5738638043403625 0.3526056110858917 0.32847127318382263 -0.34896165132522583 0.3971323072910309 0.3303011357784271 0.5063202977180481 -0.591923713684082 -0.017127901315689087 -0.4334203600883484 0.28897812962532043 -0.41392001509666443 -0.3331942856311798 -0.8129761219024658 -0.6101725697517395 -0.15367531776428223 0.20297196507453918 -0.21597129106521606 -0.9653261303901672 0.6658836603164673 -0.13485075533390045 -0.2417144626379013 0.08603457361459732 0.015911957249045372 1.195094347000122 -0.17623001337051392 -0.4022859036922455 -0.060248468071222305 -0.9656239151954651 -0.28169167041778564 0.39058107137680054 -0.426276296377182 -0.23377880454063416 0.8062220811843872 0.5028355121612549 0.6782146692276001 -0.07556919753551483 0.12844659388065338 -0.10893940180540085 -0.6090345978736877 -0.33686602115631104 0.5764942765235901 -0.8893901705741882 0.010455964133143425 0.24379831552505493 -0.2630651593208313 -0.12431740760803223 0.34024181962013245 0.5518007278442383 -0.10329283773899078 -1.0250970125198364 0.12293273955583572 0.2582584023475647 0.07859928905963898 0.2353985458612442 0.6925481557846069 -0.6424331665039062 0.6373164057731628 -0.7965815663337708 -0.2506929337978363 0.33945339918136597 -0.654499888420105 0.5174510478973389 -0.2439810037612915 0.5715364217758179 -0.5722106695175171 0.3006554841995239 0.3202272653579712 -0.5585018992424011 -0.11264247447252274 0.8739308714866638 -0.1375579982995987 -0.16739210486412048 0.2563513219356537 0.25314125418663025 -0.2882544994354248 -0.5285801887512207 -0.21686384081840515 -0.8303542137145996 0.15771660208702087 -0.4057256877422333 -0.21436382830142975 -0.2702293395996094 0.27100422978401184 -0.27125290036201477 -0.34507203102111816 -0.711750864982605 -0.5820971131324768 0.48775750398635864 -0.2095709890127182 -0.7302945256233215 -0.11531621217727661 0.05670435354113579 -0.12664316594600677 0.21708296239376068 0.23515692353248596 0.35936620831489563 -0.04772231727838516 -0.3884667158126831 -0.2314767986536026 -0.23217368125915527 -0.512386679649353 0.2810850143432617 0.38866984844207764 0.3906487226486206 -0.06231953203678131 -0.059042789041996 0.13831742107868195 0.7826959490776062 0.3542492091655731 0.4624646306037903 -0.5115249156951904 -0.6816670298576355 0.270292729139328 0.7732469439506531 -0.5987667441368103 0.021387411281466484 0.8196747899055481 -0.32327497005462646 0.6063187122344971 0.3670182526111603 -0.5665266513824463 -0.456437349319458 -1.003220558166504 -0.17046262323856354 0.5147491693496704 1.1754372119903564 0.4542112648487091 0.4812869131565094 0.6164554357528687 -0.3513592481613159 0.19228550791740417 -0.03310908004641533 -0.6691340208053589 -0.17035776376724243 -0.5872653126716614 0.1322600245475769 0.8282505869865417 -0.36025571823120117 -0.4017712473869324 0.07065374404191971 -0.4622557759284973 0.03299039602279663 -0.1665734201669693 0.1830880343914032 -0.15239809453487396 -0.7600333094596863 0.29867592453956604 -0.8207826614379883 -0.3311281204223633 0.7612079381942749 0.5950875282287598 0.10702420771121979 0.18220935761928558 -0.7498346567153931 -0.2020278126001358 -0.07628588378429413 0.2283065766096115 -0.5450760722160339 -0.2873784601688385 0.21864654123783112 -0.3522799611091614 0.9536552429199219 0.24027299880981445 -0.3940216302871704 0.2913846969604492 0.21263468265533447 0.4570024311542511 -0.3102548122406006 0.9655274152755737 -0.24288880825042725 -0.39573219418525696 0.014031623490154743 -0.28751644492149353 0.2630557715892792 -0.523838222026825 0.14238174259662628
item7 -0.36458221077919006 0.3783121407032013 -0.20314818620681763 -0.021295618265867233 -0.8822895288467407 -0.39506930112838745 0.9261589050292969 -1.0036975145339966 0.01498422585427761 -0.022845478728413582 -0.32935595512390137 0.08201314508914948 0.3134181499481201 -0.7884548306465149 0.581454336643219 0.7101210355758667 0.07178528606891632 -0.16660469770431519 0.3012862801551819 0.25219985842704773 -0.8317368626594543 0.5213762521743774 -0.8246655464172363 0.5750141739845276 -0.582064151763916 0.14354951679706573 0.5278519988059998 0.6461287140846252 0.4889935255050659 -0.47865504026412964 0.1341857612133026 -0.3799479901790619 -0.43159785866737366 0.3832462430000305 -0.5436075925827026 0.15348947048187256 -0.9204956889152527 -0.27723976969718933 0.16116544604301453 -0.7744508385658264 0.3273148536682129 0.037956539541482925 0.2729579210281372 -0.30471640825271606 -0.6886141300201416 0.5856585502624512 -0.09114361554384232 0.03579050675034523 0.34217992424964905 -1.124951720237732 0.21069617569446564 0.16267496347427368 -0.1441272795200348 -0.6322274804115295 -0.4699179530143738 -0.2323177456855774 -0.7307738065719604 0.23352666199207306 0.014078379608690739 -0.4896943271160126 0.03014964796602726 -0.5530081987380981 0.9034854173660278 0.08173799514770508 0.10972459614276886 -0.10435306280851364 -0.0866825133562088 0.4942961037158966 0.0450015589594841 0.5573325753211975 -0.7119409441947937 -0.42529746890068054 0.09953401237726212 0.3358631432056427 -0.10476214438676834 0.0891105979681015 0.6618974208831787 0.36442840099334717 0.006629058625549078 -0.3596518635749817 -0.44780609011650085 -0.226705402135849 0.7235145568847656 0.634403645992279 0.14841344952583313 0.21266494691371918 -0.11125212162733078 0.7701540589332581 -0.7614189386367798 -0.7065555453300476 -0.03958818316459656 -0.23529405891895294 -0.21073049306869507 0.3902599811553955 0.2015962451696396 0.006366537418216467 0.730009913444519 -0.31353917717933655 0.1430889368057251 0.35966116189956665 -0.5497475266456604 0.2013193517923355 -0.7317032217979431 0.2267175167798996 0.5246601700782776 -0.6657956838607788 -0.1286318004131317 -0.24069219827651978 0.45342978835105896 -0.840363621711731 -0.22548377513885498 -0.023647794499993324 -0.14949825406074524 0.19132351875305176 0.2789052128791809 0.3768273890018463 0.08209897577762604 -0.3068331182003021 -0.4825214147567749 -0.4662059247493744 0.7014201879501343 -0.17003966867923737 0.22188426554203033 0.08067518472671509 0.3313576877117157 -0.4679911732673645 0.2649279832839966 0.46159812808036804 -0.10724290460348129 -0.014391693286597729 0.09648673236370087 -0.8241590261459351 0.7788435220718384 0.09584274142980576 -0.1350141167640686 0.0926242247223854 0.24544432759284973 0.2643161714076996 -0.37872713804244995 -0.5487005114555359 -0.06789654493331909 -0.03599418327212334 0.14739809930324554 -0.029152164235711098 0.4141719341278076 0.37370049953460693 0.409422904253006 -0.12821480631828308 -0.854171633720398 0.49422523379325867 -0.8821773529052734 -0.2101583331823349 0.8459104299545288 -0.025174304842948914 0.13174623250961304 0.13308292627334595 0.46134456992149353 -0.013274505734443665 0.17009815573692322 -0.44936221837997437 -0.5523238182067871 -0.08111703395843506 0.3905471861362457 0.1313086450099945 -0.680308997631073 -0.3617798388004303 -1.0944182872772217 -0.05533969774842262 0.3420115113258362 0.6442700028419495 0.9420107007026672 -0.686372697353363 0.09391219168901443 0.5656847953796387 -0.45968228578567505 0.5356608033180237 -1.2575939893722534 -0.134809210896492 0.4728997051715851 -0.32279807329177856 -1.1262434720993042 -0.7028654217720032 0.3517953157424927 0.4791746139526367 1.0637691020965576 1.0286091566085815 0.32913151383399963 -0.6326988339424133 0.49688947200775146 0.21150225400924683 -0.46834319829940796 -0.40999236702919006 0.9311602115631104 0.08030612766742706 0.767062783241272 -0.28895193338394165 0.14897973835468292 -0.7683961391448975 0.04774898663163185 0.23907524347305298
item8 0.6487208008766174 -0.11420229077339172 -0.34700819849967957 0.2475508153438568 0.8241072297096252 0.3410037159919739 0.20955707132816315 -0.28930091857910156 0.3797661066055298 0.4145459532737732 0.27076730132102966 0.23020392656326294 -0.4708379805088043 -0.12279952317476273 0.4282870292663574 0.10933918505907059 -0.14757049083709717 -0.6994643211364746 0.10886786878108978 -0.06476667523384094 0.08133430033922195 -0.1992754340171814 0.3246102035045624 0.12523792684078217 0.08083472400903702 -0.1110629290342331 0.3091554045677185 -0.15814633667469025 0.1255386769771576 -0.1723991185426712 0.3787660598754883 -0.19641992449760437 0.15150627493858337 0.43987271189689636 -0.16228918731212616 0.08149553835391998 -0.4218437671661377 -0.29788726568222046 -0.13032643496990204 0.18505191802978516 0.6262946724891663 -0.5143710374832153 0.3014722466468811 -0.3556484282016754 0.48891279101371765 -0.15104994177818298 0.42710304260253906 0.4744015038013458 -0.46100732684135437 -0.4946465790271759 -0.06362465023994446 -0.27065902948379517 0.35703447461128235 -0.8599150776863098 0.11724793165922165 -0.1364901214838028 -0.35772454738616943 0.07811009138822556 0.654914379119873 -0.014842232689261436 0.024418577551841736 0.1432245522737503 0.6548923254013062 0.3378830552101135 -0.45390650629997253 -0.4317706525325775 0.8693535327911377 0.3726925253868103 0.4986790120601654 0.5254759192466736 0.0795149952173233 -0.3787381052970886 0.48621052503585815 -0.29541540145874023 -0.10998288542032242 0.3118881285190582 0.4569530785083771 0.4776463806629181 0.22798830270767212 -0.36739906668663025 -0.1643829047679901 0.578335165977478 0.1138465628027916 -0.28494688868522644 -0.3074796199798584 0.20582060515880585 -0.14737525582313538 1.0674543380737305 -0.4385870397090912 -0.6356093883514404 0.09393734484910965 0.04099960997700691 -0.4800789952278137 0.1589764505624771 -0.1380149871110916 -0.47747519612312317 -0.03608803078532219 -0.6267510652542114 0.11320722103118896 0.012097680941224098 -0.10943909734487534 -0.1843915730714798 -0.48167476058006287 0.5376287698745728 -0.21978139877319336 0.7940469980239868 -0.0029616497922688723 -0.2619261145591736 0.045175932347774506 0.26239126920700073 -0.2784109115600586 -0.3033219277858734 0.2216656655073166 -0.011758465319871902 0.10410095751285553 0.2155873328447342 -0.09352268278598785 0.023394295945763588 -0.4011230766773224 0.09592550992965698 0.06778542697429657 0.4130716621875763 -0.45640119910240173 -0.14694346487522125 -0.11657480895519257 0.22722488641738892 0.35464587807655334 -0.09430989623069763 0.1954946517944336 0.3940736949443817 -0.18818360567092896 0.1660286784172058 0.11603114753961563 -0.3555651009082794 0.13609579205513 0.09599758684635162 0.2642437815666199 0.6339800357818604 -0.32880833745002747 1.175083041191101 0.17188481986522675 0.2931658923625946 -0.12823230028152466 -0.48601609468460083 -0.08804620802402496 0.14495326578617096 0.897732138633728 0.15563687682151794 0.5801569223403931 0.11476206034421921 -0.3954531252384186 0.06638088077306747 0.10893143713474274 0.3287365138530731 -0.12353992462158203 0.507590115070343 0.8385549187660217 0.9135799407958984 -1.123091459274292 0.9148865938186646 0.5420756340026855 -0.435732901096344 0.7068435549736023 0.6382865309715271 -0.9659730195999146 -0.2165127694606781 -1.092230200767517 0.29713472723960876 -1.171191692352295 0.12466719001531601 -0.20784808695316315 -0.19117869436740875 -0.11282176524400711 -0.21717843413352966 -0.05645831674337387 1.1469292640686035 0.14927799999713898 -0.04771818593144417 0.3810961842536926 -0.6995692253112793 -0.24468258023262024 -0.7366354465484619 -0.036880701780319214 -0.20913934707641602 0.8912485241889954 -0.061886854469776154 0.25524550676345825 0.005876094102859497 -0.43081653118133545 -0.3236822783946991 -0.5323956608772278 0.5877745747566223 0.4348233938217163 0.5378435850143433 0.6009446978569031 0.26605352759361267 0.18608127534389496 0.1886606216430664 -0.33238157629966736 -0.22582489252090454
item9 1.2502377033233643 -0.07987350970506668 -0.36767396330833435 -0.03935085982084274 0.5007905960083008 0.12464669346809387 0.5155507326126099 0.08712072670459747 0.5047090649604797 -0.9826560616493225 0.37452006340026855 -0.3850056827068329 0.8187212944030762 0.18803569674491882 0.7155230641365051 0.6312398314476013 0.9677647352218628 0.26626574993133545 -0.8891823291778564 -0.3505162000656128 -0.20633211731910706 -0.13697828352451324 -0.17009367048740387 0.660754382610321 0.24230019748210907 -0.2033708542585373 -0.015567113645374775 -0.04557756334543228 0.3000272512435913 -0.07282518595457077 -0.433534175157547 -0.17280793190002441 0.08071974664926529 0.1211618185043335 0.4441933035850525 -0.18992142379283905 -0.17067407071590424 0.17580045759677887 -1.0478616952896118 0.5090460181236267 0.9887155890464783 0.0007720107678323984 0.3460608422756195 1.1022557020187378 0.3067479729652405 -0.13388948142528534 0.10478902608156204 0.7115585207939148 0.42618006467819214 0.07058816403150558 -0.5151475071907043 -0.3371911644935608 -0.08923353999853134 0.5067674517631531 0.16241700947284698 0.2291109412908554 0.7700451612472534 -0.15157784521579742 0.1346101313829422 -0.2782043516635895 -0.45708054304122925 0.25669151544570923 -0.4521492123603821 -0.17690789699554443 0.023683765903115273 -0.03456144779920578 -0.36960217356681824 -0.15945863723754883 -1.0063623189926147 -0.12819358706474304 0.07869571447372437 -0.3006340265274048 -0.34789812564849854 0.8083783984184265 -0.08788105845451355 0.14963006973266602 -0.14600558578968048 -0.1664000004529953 -0.10878313332796097 -0.5561946630477905 0.7173742055892944 -0.22700490057468414 -0.07321596145629883 0.3107209801673889 -0.11653420329093933 0.5715116262435913 0.0506635457277298 0.2582133710384369 0.3707781136035919 0.27223771810531616 0.39158278703689575 0.40435171127319336 -0.7274245023727417 0.2518455684185028 -0.14515064656734467 -0.1734810769557953 0.46725842356681824 -0.3610256612300873 -0.21254105865955353 -0.20232532918453217 0.23557676374912262 0.23080678284168243 0.06635397672653198 0.39176198840141296 0.37264400720596313 0.5163699388504028 -0.11349717527627945 -0.030077489092946053 -0.6491541266441345 0.39513272047042847 -0.8505828380584717 -0.20399905741214752 -0.4015161991119385 -0.1818879097700119 0.8320343494415283 -0.15533553063869476 -0.17700791358947754 0.903982937335968 -0.013644014485180378 0.9370005130767822 0.582311749458313 0.1849440336227417 0.427335649728775 -0.8717899918556213 0.8820261359214783 0.27109870314598083 1.044094204902649 -0.009223882108926773 0.35232916474342346 0.6880727410316467 0.4992380440235138 0.34125152230262756 -0.052789680659770966 -0.2981168031692505 0.04868543893098831 -0.4096774160861969 0.2207985520362854 0.1359705924987793 0.3091776669025421 0.5625426769256592 0.9549221992492676 0.24978682398796082 -0.4888272285461426 -0.07605444639921188 0.02615697681903839 -0.0165846087038517 0.14590969681739807 -0.38088634610176086 0.255978524684906 1.1463135480880737 -0.813596248626709 0.33980515599250793 -0.24327023327350616 -0.4340502619743347 0.3104117810726166 0.030360527336597443 -0.035056065768003464 0.8745036721229553 -0.10775233060121536 -0.05664554983377457 -0.40516048669815063 -0.5639656782150269 0.46449995040893555 -0.0798543244600296 -0.9424251317977905 1.071730613708496 -0.8064115047454834 1.0408681631088257 -0.11855090409517288 -0.16850845515727997 0.5058815479278564 0.34473833441734314 -0.3871968686580658 0.6938279271125793 1.2356630563735962 -0.4069567024707794 -0.36576732993125916 0.18896052241325378 0.3649302124977112 0.42633914947509766 -0.24807007610797882 -0.185162752866745 -0.6062852144241333 -0.7548606991767883 0.12255863845348358 1.034616470336914 0.0044539924710989 -1.0638819932937622 0.20484061539173126 -0.16875162720680237 -0.14065513014793396 -0.22950853407382965 0.5787245631217957 -0.09753910452127457 -0.0607614703476429 -0.38790667057037354 -0.5797290802001953 -0.17988726496696472 -0.23514482378959656 0.333813339471817
item10 0.2990696132183075 0.9190629124641418 -0.1179390400648117 -0.06882202625274658 0.4990686774253845 -0.18212290108203888 0.04420959949493408 0.031158380210399628 0.006809632293879986 0.15353821218013763 -0.1725960671901703 0.1667737364768982 0.6198549866676331 0.30745354294776917 0.04981978237628937 0.2844080328941345 0.48796457052230835 -0.48936402797698975 -0.1504441499710083 -0.06473751366138458 0.28680896759033203 0.2054147869348526 0.2318139374256134 0.4501914381980896 0.09447646141052246 -0.06088963523507118 0.2206333875656128 0.7015080451965332 0.12936976552009583 0.054513148963451385 -0.0014586891047656536 -0.412941038608551 0.44381824135780334 0.05243315547704697 0.3013228178024292 0.3204536437988281 0.41060686111450195 0.1967868059873581 -0.19740113615989685 -0.332840234041214 0.19571249186992645 -0.04833612218499184 1.1567403078079224 -0.5690411329269409 0.12646126747131348 -0.390341579914093 0.06732476502656937 0.4910328984260559 -0.021222980692982674 -0.7917414903640747 0.34139496088027954 0.08975645899772644 0.11091114580631256 0.33589088916778564 -0.40730854868888855 -0.27706900238990784 0.37211209535598755 0.6682547926902771 0.14552101492881775 -0.026492273434996605 -0.20270031690597534 -0.25969675183296204 0.4109334647655487 -0.42750293016433716 -0.5038818120956421 0.3710024058818817 0.361328661441803 -0.8471900224685669 0.22195617854595184 0.1335415542125702 0.6243312358856201 -0.2453746795654297 -0.3254593014717102 -0.15635822713375092 -0.6631147265434265 0.014895235188305378 0.3221285343170166 0.45233288407325745 0.27502644062042236 0.47145795822143555 0.38896745443344116 0.15569065511226654 -0.33768099546432495 -0.0016153709730133414 0.6942814588546753 -0.7510668039321899 -0.4366759955883026 0.5578404664993286 -0.5323503017425537 0.4757731854915619 -0.4114404022693634 0.336739718914032 -0.25658732652664185 0.6699780821800232 0.3678593039512634 -0.5239806175231934 0.24910204112529755 0.23580928146839142 0.4107758402824402 0.21880294382572174 0.30577385425567627 -0.28929176926612854 0.12175130844116211 -0.21895171701908112 0.24792726337909698 0.2722111940383911 -0.06461271643638611 0.06901927292346954 -0.2932788133621216 -0.013473905622959137 0.1255379468202591 -0.4441441297531128 -0.21249490976333618 0.040561020374298096 0.38947853446006775 0.280782014131546 -0.42755126953125 -0.8539483547210693 0.3413781523704529 0.4173729717731476 0.025611637160182 0.04917128011584282 -0.23640163242816925 -0.013132931664586067 0.6452520489692688 -0.21952298283576965 0.3488318622112274 0.03718959167599678 0.07141831517219543 -0.778877317905426 0.09952079504728317 0.4399369955062866 0.6854496598243713 0.6105383634567261 -0.04091712832450867 -0.1482418328523636 0.733420193195343 0.22628876566886902 0.18292051553726196 0.425254225730896 0.214591845870018 0.5646934509277344 0.055329564958810806 0.02102271094918251 -0.3481602668762207 -0.21802595257759094 -0.3149398863315582 -0.008143499493598938 -0.09685068577528 -0.10978281497955322 -0.05783219262957573 0.03628033772110939 1.0130033493041992 0.27346357703208923 -0.9028098583221436 0.4519953727722168 -0.3881004750728607 0.16636767983436584 -0.48341643810272217 -0.8328431248664856 -0.34767505526542664 -0.5397056937217712 -0.2606610357761383 0.03017289936542511 0.32937225699424744 -0.23472915589809418 0.4763602018356323 0.162178173661232 -0.5561464428901672 -0.00300862779840827 0.6211102604866028 0.8284695148468018 0.05416414886713028 0.602816104888916 -0.5160713791847229 -0.04047903046011925 0.3739742040634155 -0.4242870807647705 -0.23598232865333557 -0.020394887775182724 0.08597464859485626 0.15403737127780914 -0.10740448534488678 -0.4996705949306488 0.4991396963596344 -0.04248473420739174 0.46320948004722595 -0.021782822906970978 0.7394055724143982 0.6580637097358704 -0.2828134596347809 0.043352916836738586 0.34396645426750183 -0.10481049120426178 -0.3558637797832489 0.13485217094421387 0.007690037600696087 -0.417644739151001 0.6771842837333679 0.049451861530542374
